svm_type one_class
kernel_type rbf
gamma 0.10000000000000001
nr_class 2
total_sv 109
rho 3.8304488879440957
SV
0.74846940040526844 1:-0.011176832 2:-2.2273213 3:0.78494876 4:0.17494493 5:-0.20246045 6:-0.070479363 7:1.8761024 8:-1.4856116 9:-0.97711132 10:-1.2927918 
0.13084453385778286 1:-0.33983694 2:-2.3762489 3:0.58391311 4:0.035696901 5:0.76922379 6:-0.66786306 7:1.4077002 8:-1.3404509 9:-0.74790021 10:-0.61673368 
0.45603389689776169 1:-0.49299001 2:0.18465499 3:-0.57024149 4:-2.2874521 5:1.5543831 6:-2.0725994 7:2.3863602 8:1.3652822 9:0.27380422 10:0.13048633 
1 1:-0.45304612 2:0.17631018 3:-0.62096148 4:-2.2382108 5:1.6451602 6:-2.0922676 7:2.3671256 8:1.3460546 9:0.25624445 10:0.14945587 
1 1:0.69505371 2:1.1393907 3:0.74564752 4:-0.30938835 5:-1.3366699 6:-0.81727888 7:3.2675255 8:-0.13789901 9:-0.21156718 10:-1.5401782 
0.26034586216775812 1:-0.0019638761 2:0.032009868 3:0.92414574 4:-2.2835839 5:1.991368 6:-0.34402851 7:1.3965456 8:-0.31421174 9:-1.1678025 10:0.92829289 
0.51429812608849967 1:0.1330891 2:-2.2600679 3:1.5782028 4:-0.056337639 5:1.0295329 6:0.49171816 7:0.12447917 8:-2.3350409 9:-1.6313455 10:-0.03922927 
0.61921095194124975 1:-0.86761544 2:-2.2801262 3:-0.61432304 4:0.41855086 5:0.25586334 6:0.9082475 7:-2.0819692 8:-1.6610308 9:-1.2700564 10:0.87675016 
0.63484040080408466 1:-0.45493566 2:1.9148634 3:0.49423911 4:-0.56424815 5:-1.4625801 6:0.60964984 7:2.6882016 8:0.99732649 9:0.19674149 10:-0.96528085 
0.6750241490195299 1:-1.0216386 2:2.0033458 3:0.098413071 4:-0.31454826 5:-1.454063 6:1.0216662 7:-1.3976647 8:-1.2470942 9:-0.30211726 10:-1.3204276 
1 1:-0.31694924 2:0.94856086 3:-0.69871874 4:-1.5372656 5:-0.065566866 6:0.69294659 7:0.23560142 8:0.42106442 9:3.1323184 10:1.9219186 
0.73098805519290644 1:-1.3990075 2:-1.1146463 3:-2.3069766 4:1.3891376 5:1.3374525 6:0.60604497 7:-0.45550723 8:1.3392169 9:-0.21396896 10:0.3804681 
0.3288831178984909 1:-1.6781807 2:-2.1452104 3:-1.0329175 4:0.32982547 5:-0.88067177 6:0.86269881 7:-2.1103665 8:-0.016796546 9:-0.865718 10:-1.0463684 
0.82214523773658377 1:-1.489463 2:0.67342583 3:-0.12457858 4:-2.1886569 5:0.34041478 6:-0.16513998 7:0.010886879 8:2.0653681 9:1.111621 10:0.40917638 
0.36817187437302679 1:-1.3014237 2:0.57979462 3:-0.29443996 4:0.52404283 5:-0.53924833 6:-3.3612581 7:-1.1410223 8:-0.96905845 9:0.39837308 10:-1.2109797 
0.23848413803898288 1:-1.2131568 2:0.60705001 3:-0.29330272 4:0.52733808 5:-0.66559744 6:-3.6391386 7:-0.8152265 8:-0.73815727 9:0.6489395 10:-0.89791733 
0.34785084646459336 1:-0.36914241 2:0.61245362 3:-0.35863931 4:0.49064163 5:-0.28666965 6:-5.943481 7:0.097984503 8:-0.11118187 9:1.6752432 10:1.5487508 
1 1:-0.36793667 2:0.60807601 3:-0.31726079 4:0.48010723 5:-0.29972938 6:-5.9464355 7:0.073408833 8:-0.091859737 9:1.6304372 10:1.6643253 
0.56191714770743839 1:-0.36730218 2:0.6047911 3:-0.31802071 4:0.46896586 5:-0.27113813 6:-5.939317 7:0.060705116 8:-0.090641496 9:1.6069261 10:1.6838726 
1 1:-1.2255101 2:0.37947905 3:-0.6999878 4:0.20365776 5:0.52539143 6:-4.3240049 7:-0.50826932 8:-0.29674883 9:-0.38241104 10:0.99144965 
0.17482097221890577 1:-1.2607296 2:0.3618455 3:-0.71915725 4:0.20578284 5:0.52064342 6:-4.2377101 7:-0.55524619 8:-0.31161153 9:-0.42462572 10:0.90645024 
0.91819890166785834 1:-1.4279861 2:-0.79128817 3:0.038839121 4:0.24668014 5:-0.35155543 6:-2.7600296 7:-2.6787736 8:-1.6122822 9:-1.2023575 10:-0.92491642 
1 1:-1.3937162 2:-0.86482514 3:0.129554 4:0.24981219 5:-0.31684719 6:-2.6548577 7:-2.7114352 8:-1.6474398 9:-1.2486729 10:-1.3059598 
0.0081593385802993679 1:-1.0040505 2:-1.1634772 3:0.84100162 4:0.30749134 5:-0.7882959 6:-1.8049684 7:-1.0512912 8:-1.57841 9:-1.3853743 10:-2.184372 
0.20569021656813527 1:-1.609449 2:0.047902635 3:-1.7356693 4:2.6860069 5:0.093784678 6:0.44870557 7:0.44652204 8:1.5384678 9:0.0042318429 10:0.80903277 
0.72951596007880271 1:-1.3669626 2:2.5099923 3:0.14992835 4:0.20009861 5:-1.2505616 6:-0.26944493 7:1.3568289 8:1.4485458 9:-1.1497656 10:-1.1953804 
0.53177043158679915 1:-1.7496872 2:1.3967803 3:0.14141024 4:-1.4107367 5:0.064123224 6:-1.2013961 7:0.93865926 8:2.0917284 9:-0.21102688 10:1.0809772 
1 1:-1.1937663 2:0.44120127 3:-1.2583499 4:1.7394765 5:0.83581538 6:-1.1097494 7:0.88698589 8:1.1023957 9:4.2197338 10:1.024792 
0.7586299543147399 1:-1.1542833 2:0.41583098 3:-1.2586142 4:1.6960097 5:0.8342128 6:-1.1135288 7:0.83260929 8:1.042848 9:4.2914514 10:1.0815056 
0.32799976238583439 1:-0.87306722 2:0.14761291 3:-1.2067533 4:1.2777934 5:-0.071732754 6:-1.2276177 7:0.21852054 8:0.19158345 9:3.9763835 10:-0.22077832 
0.24979191660961605 1:0.20337809 2:-0.45591212 3:-0.21817213 4:0.80627566 5:-0.26137592 6:-0.75073944 7:0.074473788 8:-3.3651888 9:1.8637087 10:-2.1165102 
1 1:0.20197406 2:-0.4629334 3:-0.19445559 4:0.79710002 5:-0.46410598 6:-0.74526669 7:-0.018989804 8:-3.3720265 9:1.8517965 10:-2.2033055 
1 1:0.19685099 2:-0.4674478 3:-0.1718775 4:0.78973149 5:-0.46086821 6:-0.74753709 7:-0.11570916 8:-3.3650308 9:1.8598043 10:-2.2046656 
0.79721130238364846 1:0.75598398 2:0.13426463 3:0.0027865544 4:0.073941323 5:0.37827388 6:-0.95417877 7:0.79010018 8:-1.7177655 9:3.5304474 10:0.6913398 
0.7057006250844442 1:-1.1446105 2:-0.74296006 3:1.1848448 4:0.37902514 5:-2.0229295 6:-0.36152503 7:0.087070564 8:-0.67888454 9:-1.1191889 10:-2.1280171 
0.054361109514926148 1:-1.4396073 2:-0.070768151 3:-2.0226423 4:2.8082578 5:-0.43672075 6:0.53374923 7:0.072311201 8:0.96150094 9:-0.71517305 10:0.8188666 
0.095924186950596513 1:-1.4351852 2:1.8955574 3:0.4961135 4:0.29293526 5:-2.2378392 6:-0.57041134 7:0.36128846 8:0.30804704 9:-1.4867008 10:-1.0659999 
1 1:-1.3532954 2:2.5435802 3:0.23533313 4:0.014331554 5:-1.9082983 6:-0.57537369 7:0.71146428 8:0.61589983 9:-1.346263 10:-0.89949652 
0.034852727368847314 1:-1.5040498 2:0.82306887 3:-1.2593216 4:-0.59050604 5:1.5603317 6:-0.11195324 7:0.47368658 8:1.7610869 9:-1.4416086 10:0.49537703 
1 1:-1.7638657 2:0.06794729 3:-2.0602278 4:2.7502279 5:-0.22282146 6:0.67615756 7:-0.080633949 8:1.1560119 9:-0.7876701 10:0.83241248 
0.37182818662983713 1:-1.7824095 2:0.0013529343 3:-2.0824399 4:2.7392588 5:-0.19836978 6:0.69896661 7:-0.10538043 8:1.1499328 9:-0.80937621 10:0.79569752 
0.43057358026218784 1:-1.4719963 2:0.21540427 3:-1.6748268 4:1.988034 5:0.51770444 6:0.32922922 7:-0.44212325 8:1.7593485 9:-3.6852942 10:-1.1970655 
1 1:-1.4921435 2:0.16238734 3:-1.6841133 4:1.9914508 5:0.53048711 6:0.35347586 7:-0.47498686 8:1.7588639 9:-3.7048499 10:-1.2676355 
1 1:-1.5184791 2:0.10645656 3:-1.6933918 4:1.9815824 5:0.55266258 6:0.37998297 7:-0.51134685 8:1.7312288 9:-3.7192445 10:-1.2842339 
1 1:-2.200479 2:-1.5593086 3:-0.22657234 4:0.96705241 5:-0.61747091 6:1.2541328 7:-1.7391842 8:-0.42277251 9:-2.843151 10:-1.2388923 
0.15902634064156906 1:-2.1879928 2:-1.5397804 3:-0.16441653 4:0.95066675 5:-0.64839271 6:1.2710091 7:-1.8184618 8:-0.41418909 9:-2.8350465 10:-1.2501104 
0.75496978148611593 1:-1.2974678 2:0.50024323 3:0.10599602 4:0.51241394 5:-0.77418824 6:2.3105072 7:-5.3313151 8:0.1399807 9:-2.3782237 10:-1.1980765 
1 1:-1.2333351 2:0.51014688 3:0.11422139 4:0.49555709 5:-0.78642168 6:2.3177844 7:-5.3728736 8:0.10485156 9:-2.3449052 10:-1.4138189 
1 1:-0.95421755 2:0.56116961 3:0.12302819 4:0.42992627 5:-0.81824908 6:2.3285118 7:-5.4572977 8:0.097951736 9:-2.0724163 10:-1.6617348 
0.24433768886259349 1:-0.17093631 2:0.33933502 3:0.23492654 4:0.23006149 5:-0.80577442 6:2.2237167 7:-4.3765089 8:1.1181571 9:-0.8886875 10:-0.79036993 
1 1:0.55360118 2:0.29960823 3:0.10974481 4:0.18045555 5:-0.84406106 6:1.609183 7:-3.0922496 8:1.4150423 9:-0.37922165 10:0.35042257 
0.072247376376924799 1:0.76291835 2:0.32494364 3:0.089167155 4:0.28321616 5:-1.0141315 6:1.2844054 7:-2.6433642 8:1.3999973 9:-0.25749273 10:0.60416298 
0.2645177376215615 1:0.91815388 2:-0.5709235 3:0.9392222 4:0.29001155 5:-0.64046669 6:0.99583917 7:-3.8529874 8:-1.313311 9:0.042238362 10:-1.2459217 
0.66179225460808266 1:-0.68412992 2:0.47263044 3:-0.3979865 4:-0.96055398 5:0.85954998 6:-0.14684 7:2.1084617 8:1.5137511 9:1.2913865 10:-1.7444257 
0.074279319779500017 1:2.0467625 2:-0.68000801 3:-0.94033957 4:1.1273946 5:2.4770336 6:-0.30937375 7:-0.099633826 8:-0.071987429 9:-2.3532382 10:2.2604815 
0.43328112820278558 1:0.21019456 2:-0.1127966 3:-0.57678601 4:1.6437856 5:-0.0012134624 6:0.41286703 7:2.1683636 8:1.266921 9:2.8271695 10:0.11766757 
0.63073405479054256 1:0.1917172 2:-0.19433297 3:-0.62586295 4:1.7232607 5:0.75098145 6:0.44525933 7:2.1072735 8:1.2103339 9:2.9559008 10:0.90743724 
0.33426151199521259 1:0.23577777 2:-0.6610475 3:-0.70183316 4:1.2002871 5:-0.28296468 6:0.62459479 7:1.1822474 8:0.47184854 9:2.5260258 10:-1.219321 
1 1:3.273524 2:-0.60551686 3:-0.88828067 4:1.0743719 5:2.988384 6:-0.61090885 7:-1.0914253 8:-0.52471056 9:-0.38928576 10:3.130071 
0.37167415499268602 1:3.1244297 2:-1.3646624 3:-0.35436846 4:0.41917936 5:2.5423975 6:0.16573695 7:-1.9307678 8:-1.386534 9:-0.58599819 10:2.0677289 
1 1:3.5420351 2:-1.7606581 3:0.47046157 4:0.16701409 5:1.4181958 6:0.61826941 7:-2.6860218 8:-1.7947287 9:-0.8698845 10:0.76782097 
0.74607171909311631 1:3.5484336 2:-1.760747 3:0.57972927 4:0.15115589 5:1.3336009 6:0.65524414 7:-2.6173418 8:-1.8719553 9:-0.88398339 10:0.74817137 
0.3864134883440507 1:3.9546461 2:-0.81894576 3:1.7756157 4:0.06045473 5:0.012840417 6:0.79846942 7:-0.44966111 8:-2.3107983 9:-0.80476618 10:-0.48633136 
1 1:4.0194133 2:1.4212607 3:2.3712292 4:-0.38559593 5:-1.0926099 6:0.8442045 7:1.7696811 8:-2.3969907 9:-0.20145872 10:-0.78631604 
0.83762513397702598 1:4.0108713 2:1.408959 3:2.3710909 4:-0.43178161 5:-1.142414 6:0.83976682 7:1.7404951 8:-2.3522773 9:-0.16442259 10:-0.74385244 
0.28741741151365557 1:4.3681574 2:0.36331269 3:1.7781488 4:-1.7027923 5:0.61183338 6:-0.44237709 7:1.6726914 8:0.36634416 9:0.270678 10:0.35170807 
0.93472435151980648 1:4.3916399 2:0.20817095 3:1.2810731 4:-1.4196121 5:1.2196976 6:-1.0053866 7:1.6230232 8:0.67211405 9:-1.5084338 10:0.19006668 
1 1:4.3973739 2:0.19746634 3:1.211501 4:-1.3400814 5:1.3742034 6:-1.0633501 7:1.6043828 8:0.67801825 9:-1.5755144 10:0.24296497 
1 1:3.6757816 2:-0.13637071 3:-0.38726465 4:1.3194407 5:2.7241146 6:-1.3530169 7:0.90354692 8:0.74203203 9:-0.77659528 10:-0.13158419 
1 1:3.6342719 2:-0.17109403 3:-0.42239507 4:1.3384796 5:2.7395646 6:-1.3142814 7:0.87563825 8:0.7160289 9:-0.76052067 10:-0.116488 
0.27289453836858013 1:-0.82908747 2:0.80330842 3:1.252762 4:-2.1994594 5:0.67134642 6:-0.5096962 7:1.9745179 8:0.26207562 9:1.6541903 10:0.66344158 
0.49008653234183158 1:2.4466301 2:1.0282087 3:2.1927919 4:0.081788826 5:-1.1747406 6:2.3039637 7:2.608872 8:-1.611197 9:-0.54363432 10:-1.6267206 
1 1:2.4591912 2:1.0807923 3:2.207291 4:0.039554677 5:-1.1982232 6:2.2953184 7:2.6572926 8:-1.6447532 9:-0.5245894 10:-1.6480734 
1 1:3.2998467 2:0.23678956 3:1.2893066 4:-1.6496307 5:0.21591816 6:-0.24116215 7:1.1878915 8:0.015686454 9:1.8568017 10:1.5427446 
0.35344660590367949 1:3.3054199 2:0.21442615 3:1.2302531 4:-1.6468875 5:0.32056442 6:-0.30670876 7:1.1668152 8:0.025736552 9:1.8742176 10:1.5827298 
0.030570614302135452 1:3.377443 2:-0.19697321 3:-0.54827654 4:1.2315869 5:2.5947179 6:-0.93612863 7:-0.42407099 8:-0.43595055 9:0.60788741 10:0.78612609 
0.6262685864719113 1:3.0104038 2:-1.3608252 3:0.48942099 4:0.14403758 5:0.11521046 6:0.82129829 7:-2.6396658 8:-2.123263 9:-0.19347248 10:-0.78842845 
0.010475863602983812 1:0.78730117 2:-1.9338745 3:0.56242063 4:0.52344767 5:1.4660941 6:0.26863445 7:-2.3566579 8:-2.7231651 9:-0.86137678 10:-0.28237635 
0.47945045926716029 1:1.8576053 2:0.094619917 3:-1.1314157 4:-0.43136493 5:2.9783393 6:-1.0312751 7:0.53468313 8:0.70645828 9:-0.12224957 10:4.0551007 
1 1:1.8585271 2:0.075963784 3:-1.1404177 4:-0.36650845 5:3.0046489 6:-1.054558 7:0.49613976 8:0.70180783 9:-0.20185655 10:4.0923537 
0.30280324714255369 1:1.7926023 2:-0.17149075 3:-1.234922 4:0.28629266 5:3.2119695 6:-1.3599728 7:0.067871658 8:0.56352693 9:-0.58201986 10:3.8662359 
0.45591079275991669 1:1.4050494 2:-0.19585487 3:-0.85278636 4:-0.64839699 5:2.4656471 6:-0.19710002 7:1.5653938 8:0.67850183 9:-0.78736097 10:3.4328975 
0.057628345918980924 1:1.4870293 2:-0.64514789 3:2.176512 4:-0.27134185 5:-0.69746448 6:0.857234 7:3.2056185 8:-1.617982 9:-0.3418186 10:-1.1360524 
0.01668326904399468 1:1.1037634 2:-0.72639013 3:-1.129826 4:-0.11992324 5:3.1586929 6:0.407543 7:0.798804 8:0.55107585 9:-1.6187519 10:1.745644 
0.75856606235164425 1:1.5393532 2:-0.9701921 3:2.3722457 4:-0.028992911 5:-0.2197684 6:1.3913738 7:2.1413461 8:-2.9181385 9:-0.48903977 10:-1.3585232 
0.76575002014539073 1:1.8342943 2:-0.45006733 3:1.1725901 4:-1.5267409 5:0.046331784 6:-0.58878826 7:3.1251453 8:0.5541449 9:1.1162256 10:1.1574981 
0.81529948770161431 1:0.27258244 2:0.74456719 3:-0.57048585 4:0.49854157 5:-0.20687707 6:-1.0663641 7:-2.2822596 8:-1.1350261 9:1.5264589 10:1.7419849 
0.11081213235045961 1:0.3218411 2:0.74076961 3:-0.482104 4:0.50664707 5:-0.45370274 6:-0.7588038 7:-2.7409628 8:-1.4172034 9:1.0227469 10:1.2156248 
1 1:0.60518559 2:0.91452223 3:0.19029487 4:0.53405013 5:-0.17380944 6:3.014429 7:-0.7503641 8:0.20355093 9:-0.11435877 10:-1.4315487 
0.28588684390061558 1:0.58189598 2:0.88739782 3:0.2003865 4:0.53908954 5:-0.1627543 6:3.0238873 7:-0.6675693 8:0.20383434 9:-0.14913289 10:-1.4393002 
0.18273518556408744 1:0.85924926 2:-0.94618366 3:2.2134997 4:0.31962371 5:-0.15574095 6:2.3438593 7:0.61860074 8:-2.5293611 9:-0.22406264 10:-1.0122967 
0.20066509221443143 1:1.509858 2:-0.0037326145 3:2.433816 4:0.051509966 5:-0.48914438 6:1.6802494 7:-0.2400431 8:-3.2305006 9:-0.40890727 10:-0.98735942 
0.61503932856321775 1:0.17510473 2:-2.3436323 3:1.2574256 4:-0.042160049 5:1.1452778 6:0.4635018 7:-0.84640386 8:-1.9954441 9:-0.96748806 10:1.2498687 
0.10362573287996152 1:1.2991047 2:-0.26677553 3:-0.96333401 4:-0.14403175 5:2.5462328 6:-0.21254902 7:-0.98655766 8:0.57655641 9:-2.9409159 10:0.76122737 
0.59078055265218121 1:1.2717102 2:-0.29625598 3:-0.98488423 4:-0.25577532 5:2.3388036 6:-0.16472556 7:-1.0369834 8:0.53548093 9:-2.8169962 10:-0.0034302894 
0.022307677640288653 1:1.2779157 2:-1.8197968 3:0.94346702 4:-0.076428635 5:-0.24075415 6:0.73138667 7:-2.1933974 8:-1.194774 9:-2.35305 10:-1.1156144 
0.93822576093330501 1:1.5621177 2:-1.3094943 3:2.2266367 4:0.26580235 5:-1.1414584 6:0.92427907 7:-0.40356799 8:-2.6859109 9:-1.7649825 10:-1.1881464 
0.080206553625616309 1:1.1524755 2:0.35191039 3:-0.28083903 4:-1.3951008 5:2.5398822 6:-0.9531794 7:-0.46423779 8:0.51128783 9:-2.0323238 10:2.2965188 
0.20799828238937618 1:1.0811812 2:0.30436204 3:-0.65024318 4:-0.56305019 5:2.7305087 6:-0.86025777 7:-0.6402494 8:0.58326238 9:-2.3318009 10:2.5218663 
0.80927791367944557 1:0.81352745 2:-0.2944981 3:-0.8786367 4:-0.028697762 5:2.8156957 6:0.12166748 7:-1.8140876 8:0.098364735 9:-2.2978506 10:1.7871579 
0.24280308317848145 1:0.31439228 2:0.01012867 3:-0.76384666 4:-0.055309824 5:2.8181349 6:0.0055640163 7:-0.49686969 8:0.28394244 9:-0.029338029 10:3.5515053 
0.71255653549895237 1:-0.58414748 2:0.11083417 3:0.91655059 4:-2.2564302 5:1.8133613 6:-0.15919928 7:1.3777418 8:0.40399555 9:-1.1651279 10:1.0032153 
0.011477780968958313 1:0.89178827 2:0.76066813 3:-1.0867922 4:0.25825694 5:-0.73205376 6:-4.6629185 7:0.33703807 8:0.82002351 9:2.7490813 10:2.3100479 
1 1:0.89261354 2:0.76046591 3:-1.0879063 4:0.25777428 5:-0.73321088 6:-4.6588932 7:0.33685835 8:0.82076838 9:2.7499818 10:2.3103728 
1 1:0.89394254 2:0.76023748 3:-1.0889675 4:0.2571562 5:-0.73435388 6:-4.6540748 7:0.33663556 8:0.82161545 9:2.7516753 10:2.3102765 
1 1:-0.46620427 2:0.13067704 3:-0.66646257 4:0.71198392 5:-0.77459839 6:0.85044462 7:-4.0152557 8:-2.3529621 9:-0.31969988 10:-1.1363293 
0.17405936415714243 1:-0.49649363 2:0.14354994 3:-0.67965262 4:0.70836052 5:-0.77265464 6:0.82959267 7:-4.0060469 8:-2.3384123 9:-0.28422014 10:-1.1108359 
0.21829738987643738 1:-0.59703232 2:0.35062104 3:-1.2280831 4:0.56430607 5:-0.226722 6:0.30706461 7:-0.074162524 8:0.7172089 9:2.9520972 10:3.1720785 
1 1:-0.45223372 2:0.36553911 3:-1.222773 4:0.49024752 5:-0.10474063 6:0.19356466 7:0.06353163 8:0.79933774 9:2.8467924 10:3.3485698 
