svm_type one_class
kernel_type rbf
gamma 0.5
nr_class 2
total_sv 5
rho 0.12878452776846297
SV
0.086303780337676647 1:1.3818809 2:1.0897815 
0.083101887361732685 1:-0.83649451 2:-1.3645623 
0.00394158948465082 1:-1.3239218 2:-1.0679562 
0.066974671666551855 1:-1.1003609 2:-0.40491365 
0.059678071149387987 1:0.52866911 2:0.91599679 
