svm_type one_class
kernel_type rbf
gamma 0.16666666666666666
nr_class 2
total_sv 109
rho 3.7476397014289651
SV
0.23142758615468559 1:-0.83857405 2:0.15363545 3:-1.7071239 4:1.5382812 5:2.0821113 6:1.3694899 
0.21504697771139122 1:-0.65379232 2:-0.12201679 3:-1.5896853 4:1.9574636 5:2.178977 6:0.20391678 
0.87845692888154536 1:-0.4267952 2:-0.31642857 3:-1.4002433 4:2.0782566 5:2.1400765 6:0.25905895 
0.38653279084796388 1:0.37026378 2:-1.644886 3:1.9455892 4:1.373036 5:0.77219773 6:-0.046305096 
0.67341070305807915 1:0.54102929 2:0.12496426 3:-0.91784984 4:2.1322226 5:1.7096296 6:-0.55182185 
0.32007863731267755 1:0.69246003 2:1.7924826 3:-0.88474103 4:0.26531142 5:1.8643092 6:-1.2172083 
0.68308435378142496 1:-0.46363631 2:1.8732895 3:-1.45773 4:-0.6200778 5:2.2057173 6:-0.25147939 
0.49086870570877916 1:-0.11885031 2:2.2239605 3:-1.7611022 4:0.37285619 5:-0.65765794 6:-0.95609645 
0.91941954833267281 1:-0.83660059 2:-2.2119123 3:1.3458649 4:-1.5925665 5:-1.7976728 6:-0.26925377 
0.25695434435390191 1:-1.0216386 2:1.6676374 3:-1.2456556 4:-1.0216662 5:-1.6067547 6:-0.99933409 
0.89743910843428365 1:-1.0043449 2:1.0800519 3:-1.8523652 4:-0.90728383 5:-0.98040913 6:0.53109078 
0.80661314123266381 1:-0.38222018 2:0.33800827 3:-1.7239008 4:-0.76402484 5:0.27982234 6:2.7774085 
1 1:-0.352934 2:0.31121844 3:-1.6545991 4:-0.73450375 5:0.34875358 6:2.8880769 
0.058260787731947997 1:-1.2513366 2:-0.14686444 3:-1.5572615 4:-0.41715996 5:0.041968694 6:-1.4204531 
0.17984161872591856 1:-1.6756395 2:-2.3580056 3:-0.34240263 4:-0.86335118 5:-1.1002778 6:-1.1400095 
0.19548817537591176 1:-1.4947436 2:-2.6152908 3:1.4614676 4:-0.81252208 5:0.33585606 6:0.29727198 
0.81026269227966319 1:-1.5314314 2:-2.6395135 3:1.3499505 4:-0.82389785 5:0.17300997 6:0.24177372 
0.1523406852293834 1:-1.1839917 2:-0.94613587 3:-0.47514732 4:-0.19999514 5:1.6473691 6:-0.14317132 
1 1:-1.4577674 2:-2.3241896 3:-0.52159075 4:-0.49129581 5:-1.3340426 6:-1.2310059 
0.11101128990728888 1:-1.1762182 2:-0.53497388 3:-1.3362649 4:0.020673428 5:-0.47788277 6:-1.7138476 
0.26474005045813953 1:-1.4407434 2:0.25405869 3:-2.1303165 4:0.70304923 5:1.2086793 6:1.1475815 
0.064520806688075374 1:0.24275501 2:2.6954385 3:-0.86583612 4:0.10170176 5:-0.26462033 6:-1.1917374 
0.27394415876027362 1:-0.36933212 2:0.24623198 3:0.31742754 4:5.941518 5:-0.035201685 6:1.9178648 
1 1:-0.36793667 2:0.27276619 3:0.28891857 4:5.9464355 5:-0.02855895 6:1.9625389 
1 1:-0.36730218 2:0.26962927 3:0.29606364 4:5.939317 5:-0.034152793 6:1.9615863 
0.90711698016979969 1:-1.1892391 2:-0.14221128 3:0.48227165 4:4.4077617 5:-0.44140482 6:0.28851332 
1 1:-1.4153145 2:-0.30071664 3:0.48388501 4:3.8885054 5:-0.68947788 6:-0.17065168 
0.006439301099180784 1:-1.4580483 2:-0.33112074 3:0.48175356 4:3.7948342 5:-0.75144725 6:-0.23113448 
0.9913752577547299 1:-1.4279861 2:-0.60643622 3:0.022003304 4:2.7600296 5:-2.5211518 6:-1.2573008 
1 1:-1.3937162 2:-0.60422446 3:0.047357238 4:2.6548577 5:-2.5630167 6:-1.5226918 
0.34489276771367 1:-1.3575717 2:-0.60158075 3:0.021191182 4:2.561603 5:-2.518936 6:-1.5587168 
0.38892515924825011 1:-1.0040505 2:-0.36458684 3:-0.19663868 4:1.8049684 5:-1.6682136 6:-2.1513349 
0.65238903762270972 1:-1.4804247 2:2.287396 3:-0.76379062 4:-0.09507907 5:1.3552369 6:-1.4690889 
1 1:-1.4915883 2:2.2890773 3:-0.85021705 4:-0.068623509 5:1.4255816 6:-1.4351731 
1 1:-1.5205519 2:-1.3210349 3:3.178289 4:-0.54355655 5:1.2999337 6:0.23687764 
0.58571862026782584 1:-1.7458996 2:1.2821198 3:-1.3721797 4:1.2419559 5:1.9153321 6:0.51784595 
0.38268171924015792 1:-1.8266051 2:0.71371003 3:-1.1593682 4:1.0781761 5:2.0323816 6:0.96555627 
0.32969275280801169 1:-1.5163077 2:-0.054924382 3:1.0205071 4:1.0143909 5:1.8854458 6:0.08084487 
0.10824402459689918 1:-1.4438891 2:-0.21814086 3:1.8536203 4:1.1310872 5:1.7173432 6:0.98216636 
0.71639553825915958 1:-1.2325205 2:-0.47256088 3:2.3174043 4:1.1050679 5:1.3086077 6:2.8981019 
1 1:-1.1937663 2:-0.4934208 3:2.2768163 4:1.1097494 5:1.2428837 6:3.0173438 
0.033379026958225803 1:-1.1542833 2:-0.51388157 3:2.2322644 4:1.1135288 5:1.1724483 6:3.0933102 
0.017649448039942971 1:-0.52445618 2:2.5302542 3:-1.6993909 4:0.39737523 5:-0.021690857 6:-0.64625818 
0.79367642133248606 1:-1.4368679 2:-1.6887246 3:3.2031675 4:-0.7451994 5:0.73825807 6:0.23202541 
0.066224112951698916 1:-1.9005081 2:-2.1688693 3:1.8300491 4:-0.88115147 5:-0.98336449 6:-0.18198465 
0.38310985915163015 1:-1.5465145 2:1.1266983 3:-0.89081898 4:0.53298253 5:-0.077676929 6:-1.9125336 
0.61547800451636892 1:-1.4719963 2:-0.95396313 3:2.3221054 4:-0.32922922 5:1.0377257 6:-2.8249242 
1 1:-1.4921435 2:-1.0025889 3:2.3337084 4:-0.35347586 5:1.0206424 6:-2.8802509 
1 1:-1.5184791 2:-1.0535413 3:2.33802 4:-0.37998297 5:0.98229391 6:-2.8987737 
0.91737936225047612 1:-2.2046482 2:-1.4471787 3:0.60730764 4:-1.2345103 5:-1.1600859 6:-2.3720593 
0.50192348398794384 1:-1.5178446 2:0.42975805 3:0.093161094 4:-2.2345035 5:-2.3373649 6:-2.285894 
1 1:-1.2333351 2:0.48460899 3:-0.0071179127 4:-2.3177844 5:-2.6603134 6:-2.2070849 
0.52777604601818573 1:-1.1732622 2:0.49951167 3:-0.028134252 4:-2.3253788 5:-2.7052487 6:-2.1429655 
0.08968818287842481 1:0.96888087 2:-1.0345841 3:2.8571593 4:0.043694644 5:-0.074524957 6:1.726104 
0.33400606668927652 1:-0.2285698 2:1.0041059 3:-0.83605836 4:-0.79336946 5:2.3286201 6:-0.64135908 
0.91686162009602767 1:1.3961537 2:2.1508824 3:-1.5770879 4:0.60924323 5:-1.1068283 6:-0.27930147 
0.10444286941958195 1:2.0934703 2:-1.0621422 3:2.992331 4:0.48108545 5:0.062436094 6:-0.77780071 
1 1:1.9738391 2:-0.40995102 3:2.6710518 4:1.138642 5:0.72723222 6:-1.1335001 
0.0050125045042679842 1:1.9417716 2:-0.45835535 3:2.6656518 4:1.0974477 5:0.6925817 6:-1.1472297 
0.45618583548124281 1:1.4205365 2:-1.7255261 3:0.54572846 4:-1.5199793 5:-1.1841046 6:-0.82351815 
0.2699656861523016 1:0.19385003 2:-0.54358031 3:2.1722673 4:-0.4342722 5:1.977033 6:2.1638559 
1 1:0.1917172 2:-0.57617975 3:2.2062802 4:-0.44525933 5:1.9416641 6:2.232708 
0.13993465975716957 1:3.2830092 2:2.2604694 3:-1.6726486 4:-0.45710504 5:-1.3402966 6:-0.20329728 
0.45948725556435727 1:3.5034084 2:-0.63774798 3:3.232907 4:1.0915982 5:-0.35421256 6:1.0529637 
1 1:3.273524 2:-1.081329 3:2.9885618 4:0.61090885 5:-0.9323219 6:1.7470765 
0.3286362597765296 1:3.23882 2:-1.1438349 3:2.9298373 4:0.51641142 5:-1.0296111 6:1.3054227 
0.49868236368023428 1:3.1244297 2:-1.3291821 3:2.0470192 4:-0.16573695 5:-1.978276 6:0.96914744 
1 1:3.5420351 2:-1.0911219 3:1.0749617 4:-0.61826941 5:-2.6557987 6:-0.0070396626 
0.55154123265377919 1:3.5484336 2:-1.0177212 3:1.0049367 4:-0.65524414 5:-2.6762548 6:-0.027310473 
0.72559352474306593 1:3.9546461 2:0.53926582 3:0.068756474 4:-0.79846942 5:-1.8875887 6:-0.75815892 
1 1:4.0194133 2:2.7305669 3:-1.0854488 4:-0.8442045 5:-0.81948614 6:-0.6072241 
0.73653540263654049 1:4.0108713 2:2.7206372 3:-1.1635755 4:-0.83976682 5:-0.80225163 6:-0.55971486 
0.17995322126732119 1:4.3681574 2:1.4860604 3:-1.3135109 4:0.44237709 5:1.1145966 6:0.37317412 
1 1:4.3916399 2:1.0278064 3:-0.6408826 4:1.0053866 5:1.3087892 6:-0.72912718 
0.82374501303910008 1:4.3973739 2:0.9724688 3:-0.46234817 4:1.0633501 5:1.3035334 6:-0.73364071 
0.84065825168320885 1:4.2784071 2:0.4100327 3:0.94548897 4:1.4393474 5:1.1856369 6:0.18283021 
1 1:3.6757816 2:-0.3694095 3:3.0648178 4:1.3530169 5:0.99265428 6:-0.51949379 
0.7542083771190552 1:3.6342719 2:-0.42079108 3:3.0937715 4:1.3142814 5:0.95977335 6:-0.50097094 
0.35298001419645914 1:2.9035052 2:-0.66833251 3:0.64962377 4:0.21514222 5:-1.365895 6:-1.4862509 
0.14685984851343739 1:2.3640393 2:2.3344442 3:-0.45040438 4:0.35251147 5:0.43463121 6:-1.2566128 
0.026745882423411381 1:1.1748863 2:1.3455607 3:-1.4312102 4:1.6512556 5:1.5911509 6:0.91572449 
0.62205962987281638 1:2.4466301 2:2.2963797 3:-0.66999623 4:-2.3039637 5:0.17180907 6:-1.3275742 
1 1:2.4591912 2:2.3481659 3:-0.72731947 4:-2.2953184 5:0.17237776 6:-1.3302733 
1 1:3.2998467 2:1.0562202 3:-1.5136832 4:0.24116215 5:0.61607378 6:2.0135032 
0.93283395851274675 1:3.3054199 2:0.99863529 3:-1.4439572 4:0.30670876 5:0.61255731 6:2.0484093 
0.30450098532427189 1:3.0104038 2:-0.75874922 3:0.2179749 4:-0.82129829 5:-2.8680199 6:-0.60405631 
0.88577870084373134 1:0.78730117 2:-1.1677569 3:1.4625385 4:-0.26863445 5:-3.1545257 6:-0.66190055 
0.054835036083639585 1:1.8559334 2:-0.6644886 3:1.3929586 4:1.0095982 5:0.80092696 6:2.494659 
0.59494898920373906 1:1.7926023 2:-0.96745236 3:2.3425124 4:1.3599728 5:0.4390476 6:2.1010596 
0.81585277205935403 1:1.7953568 2:0.34391795 3:-1.4911934 4:0.65158958 5:2.0067605 6:1.4148822 
0.23869712343592023 1:1.5344231 2:-0.47963903 3:0.96738766 4:2.2358399 5:0.56545922 6:-0.27518108 
1 1:0.34796019 2:0.1096151 3:0.4801854 4:1.8893299 5:-0.68443004 6:3.2091272 
0.64481022220741757 1:0.27258244 2:0.21160779 3:0.36680807 4:1.0663641 5:-1.976703 6:1.9528238 
0.68596588496965383 1:0.3218411 2:0.26800012 3:0.21694429 4:0.7588038 5:-2.4127989 6:1.3388644 
0.678729754794274 1:0.55518741 2:0.82530653 3:0.44660718 4:-3.027516 5:-0.16598433 6:-1.0143414 
1 1:0.52396667 2:0.8038342 3:0.45495219 4:-3.0248986 5:-0.15806432 6:-1.0409614 
0.68212961559453611 1:1.5180035 2:1.7006634 3:-0.30456046 4:-1.6557807 5:-2.4035124 6:-0.83187233 
0.4627777347608284 1:1.612909 2:0.21456946 3:0.62811452 4:-1.8120117 5:-0.01667175 6:0.83532622 
0.43360829500770498 1:1.3463055 2:-0.61124247 3:-0.2602311 4:-0.78680018 5:-1.7282281 6:-2.1283968 
0.091437838193689863 1:1.6158885 2:1.2168225 3:-0.29057841 4:-0.84697657 5:-2.4765039 6:-1.6401796 
0.065533223422205383 1:1.6167137 2:1.2584794 3:-0.32606589 4:-0.81890694 5:-2.4616817 6:-1.6180656 
0.53905663670495862 1:0.89261354 2:-0.12359755 3:-0.21116838 4:4.6588932 5:0.76064252 6:2.9980876 
1 1:0.89394254 2:-0.12449374 3:-0.21251784 4:4.6540748 5:0.76113407 6:2.9989797 
0.77162195685861168 1:1.1225623 2:-0.16483459 3:-0.44611713 4:4.0991267 5:0.57494993 6:2.7813021 
0.018903767066514962 1:-0.43592884 2:-0.34424909 3:0.21913764 4:-0.87139175 5:-3.7366045 6:-0.92480416 
1 1:-0.46620427 2:-0.3436695 3:0.21717204 4:-0.85044462 5:-3.733262 6:-0.89357991 
1 1:-0.59703232 2:-0.5454804 3:0.41996227 4:-0.30706461 5:0.47704066 6:3.6530407 
0.13811225287500287 1:-0.56490273 2:-0.54257149 3:0.42758405 4:-0.28985323 5:0.50676055 6:3.662544 
0.42437153497956714 1:-2.0821017 2:-0.24479946 3:0.16836558 4:-0.289417 5:-0.48958266 6:1.1415605 
